digraph Tree {
node [shape=box, style="filled, rounded", color="black", fontname="helvetica"] ;
edge [fontname="helvetica"] ;
0 [label="CO_ISPU <= 177.5\ngini = 0.762\nsamples = 49\nvalue = [4, 11, 18, 21, 20]\nclass = Sedang", fillcolor="#fbfbff"] ;
1 [label="PM10_ISPU <= 107.5\ngini = 0.596\nsamples = 29\nvalue = [4, 0, 1, 21, 19]\nclass = Sedang", fillcolor="#f0f0fd"] ;
0 -> 1 [labeldistance=2.5, labelangle=45, headlabel="True"] ;
2 [label="CO_ISPU <= 111.0\ngini = 0.569\nsamples = 23\nvalue = [4, 0, 1, 21, 10]\nclass = Sedang", fillcolor="#acabf4"] ;
1 -> 2 ;
3 [label="NO2_ISPU <= 102.5\ngini = 0.497\nsamples = 19\nvalue = [4, 0, 1, 21, 5]\nclass = Sedang", fillcolor="#8785ef"] ;
2 -> 3 ;
4 [label="PM10_ISPU <= 46.5\ngini = 0.269\nsamples = 15\nvalue = [4, 0, 0, 21, 0]\nclass = Sedang", fillcolor="#615fea"] ;
3 -> 4 ;
5 [label="gini = 0.0\nsamples = 3\nvalue = [4, 0, 0, 0, 0]\nclass = Baik", fillcolor="#e58139"] ;
4 -> 5 ;
6 [label="gini = 0.0\nsamples = 12\nvalue = [0, 0, 0, 21, 0]\nclass = Sedang", fillcolor="#3c39e5"] ;
4 -> 6 ;
7 [label="O3_ISPU <= 144.0\ngini = 0.278\nsamples = 4\nvalue = [0, 0, 1, 0, 5]\nclass = Tidak_Sehat", fillcolor="#ea61cd"] ;
3 -> 7 ;
8 [label="gini = 0.0\nsamples = 3\nvalue = [0, 0, 0, 0, 5]\nclass = Tidak_Sehat", fillcolor="#e539c0"] ;
7 -> 8 ;
9 [label="gini = 0.0\nsamples = 1\nvalue = [0, 0, 1, 0, 0]\nclass = Sangat_Tidak_Sehat", fillcolor="#39e5c5"] ;
7 -> 9 ;
10 [label="gini = 0.0\nsamples = 4\nvalue = [0, 0, 0, 0, 5]\nclass = Tidak_Sehat", fillcolor="#e539c0"] ;
2 -> 10 ;
11 [label="gini = 0.0\nsamples = 6\nvalue = [0, 0, 0, 0, 9]\nclass = Tidak_Sehat", fillcolor="#e539c0"] ;
1 -> 11 ;
12 [label="NO2_ISPU <= 295.0\ngini = 0.511\nsamples = 20\nvalue = [0, 11, 17, 0, 1]\nclass = Sangat_Tidak_Sehat", fillcolor="#bdf6ec"] ;
0 -> 12 [labeldistance=2.5, labelangle=-45, headlabel="False"] ;
13 [label="CO_ISPU <= 185.0\ngini = 0.105\nsamples = 13\nvalue = [0, 0, 17, 0, 1]\nclass = Sangat_Tidak_Sehat", fillcolor="#45e7c8"] ;
12 -> 13 ;
14 [label="PM10_ISPU <= 115.0\ngini = 0.5\nsamples = 2\nvalue = [0, 0, 1, 0, 1]\nclass = Sangat_Tidak_Sehat", fillcolor="#ffffff"] ;
13 -> 14 ;
15 [label="gini = 0.0\nsamples = 1\nvalue = [0, 0, 1, 0, 0]\nclass = Sangat_Tidak_Sehat", fillcolor="#39e5c5"] ;
14 -> 15 ;
16 [label="gini = 0.0\nsamples = 1\nvalue = [0, 0, 0, 0, 1]\nclass = Tidak_Sehat", fillcolor="#e539c0"] ;
14 -> 16 ;
17 [label="gini = 0.0\nsamples = 11\nvalue = [0, 0, 16, 0, 0]\nclass = Sangat_Tidak_Sehat", fillcolor="#39e5c5"] ;
13 -> 17 ;
18 [label="gini = 0.0\nsamples = 7\nvalue = [0, 11, 0, 0, 0]\nclass = Berbahaya", fillcolor="#7be539"] ;
12 -> 18 ;
}